#pragma once
#define FC1_WEIGHTS_H 32
#define FC1_WEIGHTS_W 14
static const float fc1_weights[32][14] = {
  { -0.27316537, 0.33087444, -0.19976725, 0.06032066, 0.24982837, 0.23902132, 0.29287720, -0.23566827, 0.09612767, 0.15496054, 0.21332608, 0.17950724, -0.21954259, 0.28540140 },
  { -0.13356981, 0.22327906, 0.19650401, 0.15672034, 0.00122325, 0.07201384, -0.07289063, -0.10608812, 0.00242145, 0.03564501, -0.23417923, -0.00412906, -0.05846314, -0.30018350 },
  { 0.04000296, -0.22190903, -0.14984724, -0.04430123, 0.26122749, 0.24664572, 0.18793711, 0.10678028, -0.19280699, -0.33126435, 0.04029436, -0.06980361, -0.22302991, 0.00275509 },
  { -0.31826642, 0.14987110, -0.13820121, -0.28097644, -0.03439592, 0.14104210, 0.18356533, -0.25408220, 0.01873383, 0.15767255, 0.24246910, 0.25269499, -0.21714345, -0.08855790 },
  { -0.11655936, -0.02728171, -0.10556369, -0.30599272, -0.17629205, 0.08255985, -0.14389215, -0.18243586, -0.01092103, -0.17538352, -0.13820466, -0.08648715, 0.26437837, 0.11951265 },
  { 0.21952945, 0.20129775, 0.08664067, -0.18764673, -0.18588957, -0.19584718, 0.19190463, 0.05997643, 0.17073680, 0.30175531, -0.25236839, -0.11598652, -0.15664446, 0.08533399 },
  { 0.03574399, 0.17860323, -0.00248982, 0.24006228, -0.15955284, 0.18332390, -0.21873121, -0.02695589, 0.25189066, 0.12195483, -0.08341810, 0.10102179, 0.20786481, 0.28484884 },
  { -0.01034991, -0.33004877, -0.08189399, 0.11073355, 0.03472373, -0.04127464, -0.16349095, -0.09332062, -0.05206401, -0.14243615, 0.12280184, -0.21073191, 0.27920702, -0.07262880 },
  { 0.08044513, -0.08002549, -0.06824267, -0.27387422, -0.30028161, -0.16072915, 0.05755796, -0.24971627, -0.00628868, -0.00307973, 0.05800246, -0.17937055, 0.09363215, -0.24515210 },
  { 0.33988556, 0.10820529, 0.23545115, -0.10198712, -0.00352845, 0.32198465, -0.18234535, -0.03945542, 0.04792996, -0.28232086, 0.23671961, -0.30302742, 0.07507233, 0.02457355 },
  { 0.14019789, 0.13960882, 0.14134592, 0.32868877, -0.13857225, -0.24005988, 0.13110359, 0.24125007, -0.14541061, -0.11108571, -0.15965961, -0.24034739, 0.12148277, 0.19769931 },
  { 0.21034433, 0.17881167, 0.14409399, 0.22053206, 0.12816750, -0.14343037, 0.21824172, 0.06050028, 0.24622698, 0.17267545, 0.12360758, -0.16594525, 0.14896505, -0.09770022 },
  { -0.07723626, 0.02687069, 0.18118182, 0.17500830, 0.14277759, 0.09621623, 0.32995909, 0.13413334, -0.13580276, -0.36324599, 0.33987314, -0.25108033, -0.18503335, -0.28620431 },
  { -0.17443578, -0.01704271, -0.25058448, 0.07405611, -0.08302812, -0.03208630, -0.10639299, -0.25195363, -0.12289519, 0.19546638, -0.05452289, 0.18913069, -0.23404320, -0.13909112 },
  { -0.04287493, -0.30565116, -0.01362940, -0.31284198, 0.12478150, -0.16291727, 0.08611503, -0.07720006, -0.04746110, 0.06600917, 0.06866024, -0.01700780, 0.33507687, -0.24608824 },
  { -0.00290706, -0.29150552, -0.13653804, 0.18119128, -0.18401015, 0.18243332, -0.22466782, -0.23056762, 0.16017811, 0.29974699, -0.04192413, -0.28911227, 0.15250272, 0.03998072 },
  { 0.12455554, 0.03307587, 0.27116778, 0.16011944, -0.32980123, -0.00742644, 0.00793168, -0.03711924, 0.19696043, -0.14777824, 0.24557009, -0.22778693, 0.32501131, -0.29034957 },
  { -0.12907818, -0.02215231, 0.01201204, 0.12609895, -0.05182197, 0.23749621, 0.16062918, -0.23580968, 0.01976182, 0.07356663, 0.05549322, -0.04078921, -0.16521356, 0.21041591 },
  { 0.14955553, 0.37274936, 0.11766802, -0.09953007, 0.26271904, -0.07739932, 0.05208703, -0.15533575, -0.20897152, -0.31690693, -0.24757053, -0.14915782, -0.03711675, 0.27957743 },
  { -0.06820841, 0.30287462, 0.09397118, 0.32602942, -0.10932168, 0.13574623, -0.07323411, -0.17143892, -0.26230490, -0.09620333, 0.12676986, -0.30782226, -0.05757898, -0.18429099 },
  { 0.26793480, 0.30323938, 0.09707583, -0.15466359, 0.01767492, -0.17036431, 0.08913707, 0.16720764, 0.01516942, -0.02465016, 0.11037487, -0.22912377, -0.19212274, 0.11177137 },
  { 0.03135292, -0.01995707, -0.08902054, 0.19426478, -0.19354852, 0.30440083, 0.11024173, 0.13186921, -0.22989221, 0.34296498, -0.14863133, -0.25690505, 0.22323169, -0.34042406 },
  { 0.16958079, -0.33949304, 0.11578311, -0.16914718, -0.13285923, -0.06623141, 0.13243100, -0.04487838, 0.15523323, 0.04134248, -0.22980347, 0.21678856, -0.05104044, 0.05257292 },
  { -0.32119399, -0.19616428, -0.20524955, 0.06733635, 0.18350312, -0.18793917, -0.20212340, -0.28793728, 0.13438642, -0.08600675, -0.08849689, 0.15562108, -0.12304948, 0.20225760 },
  { -0.30845979, -0.13673052, -0.17246723, -0.09747563, -0.14279988, -0.02453952, 0.20577368, -0.24934144, 0.10167654, 0.01737930, 0.14290065, -0.20739985, 0.13152893, -0.17045100 },
  { 0.31674898, -0.00921902, 0.13369823, -0.23778267, -0.21679157, 0.18273900, 0.28127050, 0.15540490, 0.21106675, -0.05253046, -0.12768720, -0.05830305, -0.27788359, 0.08674567 },
  { 0.17094880, 0.09826341, 0.15518512, -0.08273752, -0.27011037, -0.07432925, -0.08226619, 0.22015575, -0.24036077, -0.34849036, 0.26913300, 0.10460200, 0.20862922, 0.10087104 },
  { 0.17395006, -0.17821629, 0.23458396, -0.28263700, 0.17341307, -0.22718780, 0.10111620, 0.08778248, 0.02172193, -0.03151961, 0.10617884, 0.17587551, 0.17183983, -0.27386916 },
  { -0.12547137, 0.01144146, 0.05893638, 0.12377016, -0.02218530, -0.24240141, -0.16179661, -0.00111478, 0.07017677, 0.10172081, 0.10533950, -0.00304828, 0.16698787, 0.14637966 },
  { 0.10527862, -0.19283932, -0.13061531, -0.30909765, 0.09168548, 0.06113071, -0.20677662, -0.13934971, 0.12146531, -0.09813724, -0.06197010, 0.29822060, -0.12421598, 0.02862903 },
  { 0.13921915, -0.21845724, 0.24353419, 0.09152471, 0.18105255, -0.31782106, -0.07778992, 0.19577745, -0.17618398, -0.02487514, 0.08908165, 0.17546690, 0.26002854, -0.18959616 },
  { -0.20018478, -0.13704023, 0.02140833, -0.19474061, 0.22505184, 0.17360568, 0.18154418, -0.24842295, -0.07694869, -0.12391385, -0.08912789, 0.09945509, -0.32107657, 0.17775214 }
};
