#pragma once
#define FC2_WEIGHTS_H 7
#define FC2_WEIGHTS_W 32
static const float fc2_weights[7][32] = {
  { -0.11867923, -0.01373297, -0.09681889, 0.01690251, 0.03155460, 0.08643688, -0.06056503, -0.06248659, -0.05429263, 0.18063028, 0.10748232, 0.19398358, 0.09249499, 0.00713124, -0.14289136, -0.22418495, -0.02637963, 0.02818685, 0.11360361, 0.22625175, 0.20049149, -0.10000782, -0.14242630, -0.06055703, -0.16927116, -0.01868564, -0.00821618, -0.13571650, -0.10443179, -0.21707594, -0.17648584, -0.22783284 },
  { -0.27865702, 0.06897031, -0.15590495, -0.19341905, -0.10089309, 0.20897597, 0.21827789, -0.13426009, 0.08422606, 0.13245893, 0.21406423, 0.14674097, -0.05974819, -0.06905206, 0.00278383, 0.10250631, 0.09459086, -0.17121519, 0.03113354, -0.19768119, 0.03765907, -0.18650940, 0.03761384, -0.24788548, -0.00481677, 0.13518991, -0.06998201, 0.23479196, -0.09448725, 0.07864328, 0.07693405, 0.09442028 },
  { -0.11745199, -0.09399000, -0.08712332, -0.21173114, 0.15821664, 0.11678579, 0.07062127, 0.18971322, 0.17001186, -0.20342325, -0.06233023, 0.01093446, -0.17639022, 0.06836090, 0.06926423, 0.19535378, 0.14237536, -0.14346659, -0.02755648, -0.12837067, 0.05973347, 0.13503812, 0.19723922, 0.00481638, -0.05745827, 0.12055120, -0.16483234, 0.21402209, 0.15640564, -0.10515026, 0.17976034, 0.06540623 },
  { 0.04492148, -0.14648294, 0.08847553, 0.13939671, -0.26065624, -0.17749992, 0.21386734, -0.02294162, 0.04062019, 0.04455629, -0.11105508, -0.03430951, 0.06666002, 0.14084724, 0.02523823, 0.04078102, 0.21425469, -0.17640662, -0.25150502, 0.26743621, 0.03603092, -0.02305799, -0.24671996, -0.19080608, 0.13974509, -0.06550083, 0.24952582, -0.08188989, 0.09860288, -0.06048039, -0.05481872, 0.03307121 },
  { -0.05671292, -0.09065706, -0.02589430, 0.13772209, 0.02124781, -0.10945097, -0.07345089, 0.06930052, -0.10402916, -0.25196898, -0.02888157, -0.11453375, -0.09502503, 0.02641957, -0.07445083, -0.04637901, 0.01830370, 0.12732080, 0.26744136, -0.01000830, 0.04999050, -0.04967828, 0.12896898, 0.03722290, -0.17517291, -0.23367375, -0.24180135, 0.17289785, 0.03586156, 0.21057828, -0.10695258, 0.20905191 },
  { -0.24723957, 0.02644194, -0.05515854, -0.19507706, 0.26254994, -0.02512110, -0.02732762, 0.24472266, 0.06392445, 0.05875850, -0.04751153, -0.08491812, -0.09757734, -0.14687088, 0.03814546, 0.25591573, 0.23482050, -0.02052107, -0.16229028, -0.04063671, 0.00794051, -0.02667146, 0.10586848, -0.03811928, -0.08349907, -0.18986164, 0.21528563, 0.13650627, 0.08340862, -0.05366313, 0.04966907, -0.07176589 },
  { 0.02481703, -0.19855252, 0.13284288, 0.12758102, -0.02383733, 0.12804158, 0.20737863, -0.21495718, -0.15941459, 0.12525290, 0.12925699, 0.10514899, -0.24177009, -0.06338757, -0.08384828, -0.08971249, -0.19232631, -0.02056775, 0.23929192, -0.21717680, 0.21063495, -0.24691761, -0.19194825, 0.00033143, -0.20347311, 0.04944856, 0.02432166, -0.15681495, 0.17238891, -0.13250837, 0.07621949, 0.23662204 }
};
